ENGLISH 1.15777 -2.12034 -2.49718 -2.10315 -0.693819 -0.673955 0.833608 0.368211 -0.0942905 1.42097
DEVNAGRI -0.680239 1.93051 -0.815786 -0.209625 -0.317153 1.25387 -1.58549 -1.82639 -0.838417 -0.492218
OTHER 1.85815 -2.80009 -0.116547 -0.644819 -0.515794 -3.20327 -1.02428 -2.03631 2.27682 4.39972